Language model created by QuickLM on Sat Mar 11 20:58:46 EST 2017
Copyright (c) 1996-2010 Carnegie Mellon University and Alexander I. Rudnicky

The model is in standard ARPA format, designed by Doug Paul while he was at MITRE.

The code that was used to produce this language model is available in Open Source.
Please visit http://www.speech.cs.cmu.edu/tools/ for more information

The (fixed) discount mass is 0.5. The backoffs are computed using the ratio method.
This model based on a corpus of 19 sentences and 21 words

\data\
ngram 1=21
ngram 2=38
ngram 3=19

\1-grams:
-0.7782 </s> -0.3010
-0.7782 <s> -0.2218
-2.0569 CALL -0.2218
-2.0569 CHANGE -0.2218
-2.0569 EMAIL -0.2218
-2.0569 ERASE -0.2218
-2.0569 GENDER -0.2218
-2.0569 HISTORY -0.2218
-2.0569 LOG -0.2218
-2.0569 MARK -0.2218
-2.0569 NAME -0.2218
-2.0569 NEW -0.2218
-2.0569 OUT -0.2218
-2.0569 PASS -0.2218
-2.0569 PHONE -0.2218
-2.0569 SEARCH -0.2218
-2.0569 SEND -0.2218
-2.0569 SEVEN -0.2218
-2.0569 SURNAME -0.2218
-2.0569 USER -0.2218
-2.0569 VIDEOCALL -0.2218

\2-grams:
-1.5798 <s> CALL 0.0000
-1.5798 <s> CHANGE 0.0000
-1.5798 <s> EMAIL 0.0000
-1.5798 <s> ERASE 0.0000
-1.5798 <s> GENDER 0.0000
-1.5798 <s> HISTORY 0.0000
-1.5798 <s> LOG 0.0000
-1.5798 <s> MARK 0.0000
-1.5798 <s> NAME 0.0000
-1.5798 <s> NEW 0.0000
-1.5798 <s> OUT 0.0000
-1.5798 <s> PASS 0.0000
-1.5798 <s> PHONE 0.0000
-1.5798 <s> SEARCH 0.0000
-1.5798 <s> SEND 0.0000
-1.5798 <s> SEVEN 0.0000
-1.5798 <s> SURNAME 0.0000
-1.5798 <s> USER 0.0000
-1.5798 <s> VIDEOCALL 0.0000
-0.3010 CALL </s> -0.3010
-0.3010 CHANGE </s> -0.3010
-0.3010 EMAIL </s> -0.3010
-0.3010 ERASE </s> -0.3010
-0.3010 GENDER </s> -0.3010
-0.3010 HISTORY </s> -0.3010
-0.3010 LOG </s> -0.3010
-0.3010 MARK </s> -0.3010
-0.3010 NAME </s> -0.3010
-0.3010 NEW </s> -0.3010
-0.3010 OUT </s> -0.3010
-0.3010 PASS </s> -0.3010
-0.3010 PHONE </s> -0.3010
-0.3010 SEARCH </s> -0.3010
-0.3010 SEND </s> -0.3010
-0.3010 SEVEN </s> -0.3010
-0.3010 SURNAME </s> -0.3010
-0.3010 USER </s> -0.3010
-0.3010 VIDEOCALL </s> -0.3010

\3-grams:
-0.3010 <s> CALL </s>
-0.3010 <s> CHANGE </s>
-0.3010 <s> EMAIL </s>
-0.3010 <s> ERASE </s>
-0.3010 <s> GENDER </s>
-0.3010 <s> HISTORY </s>
-0.3010 <s> LOG </s>
-0.3010 <s> MARK </s>
-0.3010 <s> NAME </s>
-0.3010 <s> NEW </s>
-0.3010 <s> OUT </s>
-0.3010 <s> PASS </s>
-0.3010 <s> PHONE </s>
-0.3010 <s> SEARCH </s>
-0.3010 <s> SEND </s>
-0.3010 <s> SEVEN </s>
-0.3010 <s> SURNAME </s>
-0.3010 <s> USER </s>
-0.3010 <s> VIDEOCALL </s>

\end\
