Language model created by QuickLM on Tue Mar  7 22:17:51 EST 2017
Copyright (c) 1996-2010 Carnegie Mellon University and Alexander I. Rudnicky

The model is in standard ARPA format, designed by Doug Paul while he was at MITRE.

The code that was used to produce this language model is available in Open Source.
Please visit http://www.speech.cs.cmu.edu/tools/ for more information

The (fixed) discount mass is 0.5. The backoffs are computed using the ratio method.
This model based on a corpus of 4 sentences and 9 words

\data\
ngram 1=9
ngram 2=11
ngram 3=9

\1-grams:
-1.5563 1.OPEN -0.2762
-1.5563 2.OPEN -0.2762
-1.5563 3.CLOSE -0.2762
-1.5563 4.CLOSE -0.2762
-0.9542 </s> -0.3010
-0.9542 <s> -0.2499
-1.2553 BROWSER -0.2499
-1.2553 FILE -0.2762
-1.2553 MANAGER -0.2499

\2-grams:
-0.3010 1.OPEN FILE 0.0000
-0.3010 2.OPEN BROWSER 0.0000
-0.3010 3.CLOSE BROWSER 0.0000
-0.3010 4.CLOSE FILE 0.0000
-0.9031 <s> 1.OPEN 0.0000
-0.9031 <s> 2.OPEN 0.0000
-0.9031 <s> 3.CLOSE 0.0000
-0.9031 <s> 4.CLOSE 0.0000
-0.3010 BROWSER </s> -0.3010
-0.3010 FILE MANAGER 0.0000
-0.3010 MANAGER </s> -0.3010

\3-grams:
-0.3010 1.OPEN FILE MANAGER
-0.3010 2.OPEN BROWSER </s>
-0.3010 3.CLOSE BROWSER </s>
-0.3010 4.CLOSE FILE MANAGER
-0.3010 <s> 1.OPEN FILE
-0.3010 <s> 2.OPEN BROWSER
-0.3010 <s> 3.CLOSE BROWSER
-0.3010 <s> 4.CLOSE FILE
-0.3010 FILE MANAGER </s>

\end\
